//Numpy array shape [64]
//Min -0.331901311874
//Max 0.647106230259
//Number of zeros 0

#ifndef B2_H_
#define B2_H_

#ifndef __SYNTHESIS__
fc1_bias_t b2[64];
#else
fc1_bias_t b2[64] = {0.2652947307, 0.0568396077, -0.2004286945, 0.3653819561, 0.0235125721, 0.0100701069, 0.3738503158, 0.6471062303, 0.1097915247, 0.4380782843, -0.0415360704, -0.2369490862, -0.0862573236, -0.0746615306, 0.1979026198, 0.3549712300, -0.3156687617, 0.0833382756, -0.1568209231, 0.1061605439, 0.1909452975, -0.0113224601, 0.1464211941, -0.0954928696, 0.1109822616, -0.0669289902, 0.1304164529, 0.0442035347, -0.1368659884, 0.1976156533, 0.3509554863, 0.3078748882, -0.3319013119, -0.0860775709, 0.6366864443, 0.1268346459, 0.0672554895, 0.3970929086, -0.1906402856, 0.3866379559, 0.3596201539, 0.0097101666, -0.1259787381, -0.0887707248, 0.0882311389, 0.0688420013, 0.1756815314, 0.1561587304, 0.4072091579, -0.0011215660, -0.0847286656, 0.2024976462, 0.2367679030, 0.2200345099, 0.1046135649, 0.3590935469, -0.0132880686, 0.2161013484, 0.2040610015, -0.2717238069, 0.1249515340, 0.2209097147, -0.2067441493, -0.1268845797};
#endif

#endif
