//Numpy array shape [32, 5]
//Min -1.970352888107
//Max 1.941452980042
//Number of zeros 0

#ifndef W11_H_
#define W11_H_

#ifndef __SYNTHESIS__
output_weight_t w11[160];
#else
output_weight_t w11[160] = {0.3291647434, 0.7216594219, -0.0647238418, -0.4723537266, -0.4552854002, -0.0000282511, 0.0000448163, -0.0002981043, -0.0000318902, -0.0000373216, -0.0085884184, 0.0099136652, -0.2205641866, -1.4232100248, 1.4787570238, -0.0007716413, 0.0009620984, 0.1863145083, 0.1563823670, -0.3048582077, -0.0768862665, -0.4881167114, 0.8585766554, 0.1567862183, -0.0199144166, 0.6929603815, 0.0582836345, -0.0014923300, -0.6166380644, -0.1713670641, -0.7477350831, -0.1142188087, 0.0022139004, 0.3754625916, 0.4617279768, -0.3201319873, 0.4826747179, 0.0614738390, -1.8079681396, 0.1637764275, -0.6033933759, -0.1027558893, -0.1275288314, 0.5919876099, 0.5411758423, 0.0001607970, -0.0004233059, 0.0003673700, 0.0004042658, -0.0006549882, -0.1408507228, -0.0854785591, 0.4055124223, 0.7392609715, -0.0017391496, 0.8049796820, -0.3393740654, -0.0003852469, 0.0004460367, -0.0038081482, -0.2178023905, 0.0016087143, 0.3953921497, -0.7276914716, 0.2919974029, -0.8232917786, -1.1222405434, 0.0007331065, 0.5802515149, -0.0001885283, 0.5810250044, -0.4550143778, 0.7325824499, -1.1457810402, -0.0077864565, 0.5228055120, -0.0693413839, 0.0574842617, -0.6146793962, -1.9703528881, -0.3793696165, -0.1514557600, 0.4670641422, 0.0015295735, 0.5984510183, 0.1571403444, 0.2592115104, -0.0988357365, -1.2099639177, 0.2641684711, 0.8172848821, 0.0277298652, -0.6528180242, -0.1135541126, -0.2861102819, -0.3378516436, 0.0010166046, -0.6950794458, 0.2299775928, 0.3029639125, -0.7014767528, 0.5490171313, -0.0011059837, -0.0000973406, 0.0376689099, 0.0001071180, 0.0001370253, -0.0000242234, 0.0000599410, -0.0000426111, -0.0298177712, 0.3995168507, 0.4162258208, -0.0003076191, -0.3105361164, 0.1703913808, 0.3594692349, -1.4654495716, -0.3826526105, -0.0031210983, -0.0018429111, -0.5306754708, -1.1012284756, 0.4847506881, 0.6029375792, 0.5818595290, -0.9515874982, 0.1106307656, -0.0322714783, -0.2286622077, -0.0741239190, -0.1757809520, -0.9607527256, 0.0025208856, 1.9414529800, 0.0433992706, 0.1834141910, -0.0325061269, 0.1525641680, -0.5422785878, 0.0000811831, 0.5935517550, -1.0119725466, 0.0028807276, 0.0228224620, 0.2508069873, 0.1973001361, -0.1819324791, -0.6302725077, 0.0091075152, -0.0618342720, 0.2444048822, 0.0773672089, 0.5514492393, -0.7374331355, 0.2071579248, -0.0227681864, 0.1150954813, 0.2834709883, -0.0395832136};
#endif

#endif
