//Numpy array shape [16, 64]
//Min -1.381723046303
//Max 1.929519534111
//Number of zeros 0

#ifndef W2_H_
#define W2_H_

#ifndef __SYNTHESIS__
fc1_weight_t w2[1024];
#else
fc1_weight_t w2[1024] = {-0.3755874038, 0.0724365711, 0.0000456912, 0.2154911160, -0.0019307719, 0.0000246067, -0.0000303816, 0.0182122365, -0.6096702218, 0.0324296877, -0.2591993809, -0.0014110010, -0.0016898479, 0.5701325536, -0.0656501427, -0.4311716259, -0.1326824725, 0.0010238895, 0.0930333287, 0.2029148489, -0.1033279225, -0.0650295168, 0.3858424425, 0.0676674917, -0.0064529628, 0.0000720746, 0.1723054796, -0.0006302825, -0.0820464641, 0.0053748270, -0.2180319428, 0.0002863780, 0.0005859613, -0.1042178348, -0.3672294915, 0.0060575912, -0.0029539643, -0.1903550923, -0.0797206089, -0.0029942018, -0.1261296272, -0.0967854410, 0.0682711378, 0.1101765782, 0.0021613038, 0.0894284025, 0.1138417199, -0.0014401132, -0.0029617604, -0.0000440011, -0.0001495203, 0.2084247172, 0.2351553291, 0.0004539574, -0.1438624412, 0.3592391312, 0.0001073541, 0.0429282486, -0.0935122296, -0.0023005391, -0.0013366198, 0.3824515343, 0.0262441132, -0.0025916258, -0.1721743643, -0.0001931594, 0.0000798883, 0.1917167008, 0.0854434893, 0.0000097865, 0.0015804161, 0.0114193410, -0.1395516098, 0.2705488503, -0.2797245681, 0.0067766476, 0.6362115741, -0.0884476602, -0.0886551738, -0.3858520091, -0.1035939604, -0.0017504699, 0.0403395072, 0.0489727929, 0.1332052052, -0.0442518070, 0.4195755422, -0.2245755345, -0.0008133669, 0.0001323550, 0.4593322575, 0.0013067042, 0.0016646485, -0.0541625470, -0.0044718557, 0.0753383487, 0.0034304557, 0.0027706935, -0.0665662065, 0.0407154709, 0.0230557267, -0.0023238116, 0.1596194804, 0.0012158644, -0.0713321865, 0.0001412974, -0.0708885714, 0.0002728720, -0.0681751370, 0.1280764788, 0.8456400633, -0.0020494668, -0.0014662305, 0.0000770999, 0.0002667174, 0.1218246147, 0.1213790253, -0.0018008846, -0.0101930974, 0.1543026865, 0.0001061043, 0.0013337889, -0.0790480152, 0.0021988389, 0.0015294414, -0.1711563766, 0.7604180574, 0.0019828700, 0.0011167828, 0.0024597107, 0.0000353476, 0.1222402304, 0.0627460480, 0.0000142700, 0.5475685596, 0.2749552429, 0.2258367836, 0.4175311923, -0.3471557796, 0.0004008650, 0.0034487485, -0.0019618215, -0.2938215137, -0.0031987703, 0.0233103931, -0.0019241851, -0.2098992318, 0.1298050284, 0.3418177962, 0.9635540843, 0.0275516585, -0.3094437420, 0.0032702778, -0.0000067056, -0.6621570587, -0.1956906319, 0.2562775910, -0.4786418080, -0.4641400576, 0.0745307058, -0.0011411707, -0.0003843526, 0.0022865988, 0.0239543654, 0.0111707291, 0.4641522169, -0.1050076261, -0.0007788631, 0.3626014590, 0.0054485882, 0.1391565651, 0.0003140615, 0.2777706981, 0.1018368304, -0.0033772718, 0.0486242063, 0.0205901135, 0.0000151985, 0.0062044822, -0.2680959702, -0.0408743210, 0.0010215780, -0.0010071332, 0.3624917865, 0.0000210666, 0.0635071099, -0.5128830671, 0.0014770726, 0.1797068864, 0.2104626000, -0.1518495083, 0.0006652242, 0.0029001795, 0.0734842569, 0.0000316878, -0.3938548267, -0.0035200643, -0.0000636410, 0.0063302903, -0.0018230858, 0.1721595526, -0.2373944074, -0.3156879842, 0.4121058583, 0.3291423023, -0.3175894916, -0.4459078610, -0.1205371693, 0.0041102599, -0.0021572991, 0.2552453279, 0.0248355269, 0.0736712292, 1.4116611481, -0.1006251052, -0.2954934239, 0.0004912289, 0.0000153444, -0.1084239781, 0.0023946750, 0.6571171880, -0.5950751901, -0.9917402267, -0.7845725417, -0.0086817918, 0.2256566882, -0.2087789774, -0.0066077369, 0.0065262895, -0.1767906696, -0.0238189902, -0.6184903979, 0.2428592741, 0.0015069458, -0.0013546058, 0.0098667163, -0.0019997982, 0.1122434512, -0.0760626569, 0.0004039283, 0.0873629004, -0.0000056092, -0.0004515106, -0.6128660440, -0.1590804309, -0.3806591928, 0.0019076152, 0.2576175630, 0.0000794020, 0.4226088524, -0.1981858760, 0.0491331033, -0.1210533008, 0.0020009445, 0.0013845308, 0.2088241875, 0.0123755904, 0.0021191207, -0.0000292341, -0.1426186711, 0.0299183037, 0.0000287945, 0.2236253917, 0.2183802128, -0.0208317842, 0.5137961507, -0.3828488290, -0.0214074608, -0.0952813178, -0.0641118735, -0.3023226857, 0.0016976212, 0.0027918688, 0.1152074412, -0.0066814004, 0.3145833015, 0.0453961045, 0.7015218139, 0.0823762044, -0.0706357509, 0.2594085932, 0.0000013948, -0.2756259143, 0.0003503436, -0.0017154305, -0.4205496907, -0.4330860972, 0.1609598994, 0.0006179208, -0.0006752183, 0.4401378334, 0.2403903306, 0.0103503577, 0.0745588392, -0.0899502635, 0.0000883592, 0.3944123387, 0.0038976944, 0.0832937658, -0.3401028812, -0.0010440385, 0.1213301569, 0.0006394896, 0.0007220728, 0.2482661009, 0.0000284428, 0.1241915375, -0.0012976303, -0.2771603465, -0.0000791995, 0.0019108631, 0.3811732829, -0.0001655074, 0.6133259535, -0.2960762978, 0.0004459454, 0.0028246618, 0.0626892745, 0.0624023601, 0.0681378692, -0.1388631016, 0.0026496255, -0.0000212388, 0.0191951413, -0.1194505841, -0.0000067405, 0.0033553122, -0.0252974797, -0.3089471459, -0.1428511441, -0.0567855090, -0.0049783387, 0.0263782367, -0.0033305024, 0.1775949448, 0.0026315839, 0.1343133599, -0.0003212210, -0.0766489506, -0.0011886503, 0.0010228597, -0.0003381619, -0.0016156880, -0.0032438615, 0.0014988921, -0.0000243694, -0.0042181038, 0.0037552656, -0.1515064985, 0.1353162825, 0.0104504097, -0.0022521610, 0.0029444685, 0.0325565524, -0.0483780429, 0.2648830712, 0.0024146857, 0.1266536415, 0.0056450074, -0.1424375772, -0.0105919624, -0.3029258549, -0.3418723047, 0.1048795730, 0.0089264372, -0.0036517314, -0.0002014244, 0.0006645114, 0.1218081117, -0.0000457777, 0.0351116918, 0.0440887809, -0.0099968137, -0.1393511146, 0.0063617760, -0.0457845889, 0.0000520295, -0.0023371314, 0.0362759009, 0.0004735125, 0.0019925709, 0.0003784455, 0.2561355531, 0.0004689986, 0.0215350613, 0.1511069238, 0.0000243278, 0.0129212243, -0.1285767555, 0.0000018868, 0.2760320902, 0.0140909385, 0.0341253616, -0.1445147544, -0.0357213207, 0.1422413290, -0.0025117074, 0.0045867600, 0.1580342650, -0.0008984642, 0.1162837744, -0.0004090257, 0.2124413401, 0.1251970083, 0.0168766174, -0.1314643621, 0.2215947360, -0.1988274455, -0.0009444980, -0.0000673549, -0.1085572988, -0.4232375324, -0.0038939081, 0.0019315145, -0.0009274523, 0.1472105086, 0.0057181627, 0.1151933149, 0.2033172846, -0.4513452947, -0.0709945261, 0.0985944495, 0.0758336335, 0.0293243174, 0.2374628633, 0.0030639854, -0.0409238897, -0.1150242090, 0.0037004689, 0.0514256433, -0.0061038430, -0.0040038419, 0.0006987940, 0.0000078048, -0.0371026993, -0.1787368208, 0.2244012803, 0.0091382721, 0.0006644755, 0.0036228055, 0.0000619179, -0.1843218356, -0.0265197810, -0.0010808151, -0.0004114000, 0.0228796955, -0.0004639678, 0.0611440651, 0.0006218159, 0.0025674673, -0.0000785597, 0.0030054846, -0.0869888216, 0.0000231702, 0.0292580891, -0.0366059057, 0.0779012367, -0.0870449319, -0.0008153877, -0.0279257782, 0.0572949760, 0.0009512106, 0.0029398696, -0.0173023269, -0.0117819645, 0.0010590560, 0.0122943660, -0.4117684960, 0.0204835888, -0.0332048051, 0.0076864311, 0.0002175261, 0.0052622180, -0.0000269764, 0.0026304990, 0.0064721094, 0.0581231266, 0.0519375280, 0.0003933182, -0.0048436122, 0.0649600923, 0.0085114185, -0.0057483432, 0.0304172840, -0.6129789948, -0.0467023775, 0.2997826338, 0.0014033791, 0.0150706731, -0.0019385244, -0.2982942164, 0.0067656669, 0.0826282576, 0.0671200529, 0.0039619473, 0.0017602473, 0.0035684654, -0.0000236071, 0.0061913216, -0.0031068635, 0.0654637516, -0.2225199789, 0.0003685103, 0.0150451828, 0.0001190874, 0.0842625201, -0.0003462631, -0.0001867713, -0.0010777223, 0.1905720085, -0.0213433504, 0.0039189416, 0.2332721204, 0.0004559590, 0.0000186419, -0.0031653440, 0.2739250362, 0.0000168262, -0.1646394730, 0.0199780874, -0.0343094803, -0.0052478970, -0.0001093042, -0.0024996791, -0.0025289149, 0.0045870473, -0.0846024603, 0.1744082570, 0.0036113772, -0.0003742427, 0.1881877333, 0.0593584627, 0.0027309475, 0.1159813553, -0.1679332405, -0.0089118266, -0.0009292587, 0.0000956070, 0.0610417984, -0.1711118966, -0.0534352474, -0.1773015112, 0.1825432032, -0.1264214516, 0.0057654721, 0.0143676978, -0.2015957683, -0.0009027070, 0.0002431994, 0.0904269889, 0.0428133756, 0.0031881188, -0.1828115135, 0.0030815902, -0.0028595582, -0.1583660692, 0.0037180423, 0.0442995727, -0.0061028753, -0.0039814622, 0.0007297859, 0.0000159763, -0.0021806424, -0.0053263684, 0.1027231365, 0.0091351764, 0.0006604876, -0.1074818224, 0.0000473642, -0.0052697477, -0.0265305284, -0.0011789823, -0.0004617578, 0.1326163113, 0.0638350546, 0.0070457072, -0.0065551815, -0.0920965150, -0.0000449651, 0.0001727340, 0.1715646386, -0.0000168978, -0.2267428935, -0.0860459432, -0.0189382117, -0.0727765113, -0.1565312147, -0.0594190992, 0.0016080908, 0.0016840333, 0.0088809906, 0.0015053448, -0.1925594211, 0.1094329581, -0.0742851496, -0.0055111069, -0.3355117738, -0.2126493752, -0.0619633719, -0.0003865566, 0.0616803505, 0.0000061779, 0.0030458947, 0.1147614866, 0.0134152155, 0.2489788532, 0.0249815229, 0.0383445099, 0.1276689470, -0.0475530364, 0.0001903083, 0.3805040717, -0.0434786640, -0.1273931265, 0.0556218475, -0.1317625493, -0.2800145149, 0.0134947691, -0.0906300470, -0.0573389791, -0.0645601824, 0.0209764801, -0.3084747195, 0.1824718267, 0.1877456009, 0.0000318581, 0.0956714824, -0.1137428507, -0.2995072007, -0.2016361356, -0.2265159935, -0.1138854772, 0.0000951477, -0.2597971261, 0.0786774978, 0.0007449719, 0.0005404588, -0.0030785298, 0.0019679859, -0.3675887585, -0.0006408475, -0.0005852454, -0.0000096125, 0.1042371690, -0.0350113809, -0.0000020744, 0.1502964348, 0.1285125464, -0.1304360777, 0.1814867854, -0.0019766036, -0.0005744768, 0.1129547358, 0.0213438347, 0.1576806456, 0.0048426180, -0.1213977262, 0.0061011543, 0.0001439896, -0.0018352676, -0.3479069769, -0.2286255211, 0.2433262467, 0.0013183368, 0.0489330739, 0.0000829520, -0.0147842672, 0.0932935253, 0.0028788063, -0.0646358803, 0.0567229614, 0.2290399671, 0.0144193228, -0.1266939044, -0.0467635766, -0.2989913523, -0.0018563315, -0.0688297376, -0.0019165123, -0.2718382180, 0.3434441090, -0.0719882771, 0.0032535407, -0.0142815392, -0.0006919023, 0.0282469504, 0.0015905685, 0.0021072896, 0.1038893312, -0.0000142628, 0.0019071781, -0.0940186158, 0.1627551019, -0.0002711854, -0.0214497019, -0.0696093887, -0.0001162921, -0.0163186397, -0.1968991011, -0.0485220440, -0.0896708593, -0.0172508545, 0.3515451849, -0.0055700704, 0.2504430711, 0.0027136074, 0.0000075917, -0.0806604251, 0.1760744303, -0.0000252074, -0.0005061028, 0.0019293223, -0.2256795764, -0.1267968267, -0.0254185200, -0.1152301207, 0.0114590069, 0.0000913279, -0.0465647131, 0.2055945694, 0.0016239611, 0.0051807011, -0.2113242596, 0.1009320244, -0.2168554366, 0.2359310091, -0.0009802206, 0.0280498527, 0.0036298265, 0.0000005480, -0.0854747444, 0.0061216075, -0.0686743036, -0.1703072637, 0.0136814946, -0.2036871761, 0.1634301692, -0.0655488446, 0.0002146508, 0.1938919872, -0.0055209496, -0.0026002666, -0.7223514318, 0.3960809112, -0.0288737975, 0.0004004656, 0.1085173488, 0.0013646143, -0.1194981933, -0.0492032878, 0.0068390216, 0.0030109575, 0.3078016639, 0.0000082022, 0.0036139984, 0.0534700677, 0.1000489816, -0.0005989677, -0.2229381502, 0.0224021822, 0.0001061841, 0.0050747325, 0.1685937196, -0.2552755177, -0.0299293622, -0.0010515666, -0.6257274151, -0.1924355030, -0.0000968610, 0.0009726788, -0.0000099403, 0.0055490481, 0.0006392634, -0.0000090058, 0.0176209733, 0.0051744916, 0.1271007806, 0.2571704984, -0.0618625395, 0.2262437195, 0.2214454263, 0.0394914523, -0.0290719382, 0.0343006849, -0.2538425624, 0.0053259637, 0.2149537206, -0.0414296091, 0.0023152570, -0.0026659025, 0.0411431640, -0.0025488648, 0.0188228115, 0.0000646830, -0.1208435744, -0.2087460011, 0.0472436324, 0.1358569711, -0.0199190080, 0.1884002984, 0.1151576564, -0.0147907138, -0.1350031197, -0.3751297891, -0.0009390579, -0.0012211838, -0.1130434051, 0.1580981910, -0.1025197133, 0.2191047817, 0.0003430669, -0.0214758534, 0.0016866495, -0.2239538282, 0.0005172675, 0.0016698883, 0.0022037239, 0.0000303236, -0.0261287224, 0.3277700841, 0.3259205520, 0.1258191019, -0.0091517158, 0.0015660563, 0.0002079319, -0.0520084612, -0.0107611297, 0.0001791063, 0.0004272467, -0.0004844650, 0.1747893244, -0.1305044889, -0.1267457902, 0.0022384406, 0.0000166145, 0.0291743502, -0.2370505035, -0.0000266217, -0.2282366604, -0.0697973371, 0.0351416729, -0.0145533346, -0.1240434200, -0.0217041746, 0.0229216814, -0.0000437828, 0.0303079877, 0.0018126627, 0.0035603459, 0.0059232577, -0.2271645069, -0.0668806061, 0.0123488717, -0.0971672162, -0.1659290195, -0.0479372218, 0.0163715351, -0.0000307461, 0.1636689156, 0.0508049466, 0.1011915281, -0.2982415259, -0.0354836397, -0.0291340631, 0.1168067083, -0.1712249070, 0.0550594851, 0.2317507565, -0.1355882436, 0.0088576917, -0.0506477356, -0.1967631280, -0.0108349789, -0.0984500349, 0.0005399594, 0.2804384232, 0.0055050910, 0.0644588694, 0.0075371703, 0.0033585324, 0.0048730993, 0.0000484149, -0.0544489883, -0.3303525448, -0.1639352739, 0.0002280826, 0.0002418891, 0.0153384302, -0.0000609049, 0.0433008112, -0.0020115660, 0.0011323161, 0.0034254855, 0.1541549861, -0.0699431524, 0.0064236959, -0.1246279404, -0.0218234397, -0.0000000705, -1.3817230463, 1.6275197268, -0.0000172294, -1.2057025433, -0.0581432581, -0.3025901914, 0.0030107899, 0.0009991361, 0.2654037476, 0.0800963864, 0.0033377465, 0.8214191794, -0.1808702648, 0.4755800962, -0.0031021559, 0.4799749851, 0.0028711581, 0.0240985565, 0.4492937922, -0.0274417009, -0.0122491736, -0.3243995905, -0.0000544300, 0.6865012050, 0.0873001441, 1.2333620787, 0.5729081035, 0.8920410872, 1.1634840965, -0.0022729076, 0.4367194474, 0.2828164399, 0.4113576710, 0.0083846571, -0.9630643129, -0.0428379290, 0.6453701854, -0.7853087783, 0.4219451845, 0.4726376832, 0.1383266747, -0.0063060704, 1.9295195341, -0.0918257013, -0.2495219111, 0.0658343881, 0.0000133390, 0.2058747709, 0.2997502387, 0.7314512730, 0.0030086832, -0.2166272253, -0.8774095178, 0.0000452853, -0.5539862514, -0.0017461542, 0.0048186039, 0.0017296551, -0.0003535747, 0.0014376193, 0.0039834930, -0.3386209011, 0.0046957047, 0.0000113928, 0.0877626389, -0.3980824947, 0.0000253835, 0.0058262064, 0.3651521504, -0.4144995809, -0.3314286768, -0.4102185071, -0.2062385827, 0.0767314211, 0.2102820724, 0.0755123943, 0.7144544721, 0.0536023155, -0.0012557376, -0.0108624576, -0.0032953625, 0.0272674058, -0.0396851003, -0.5139998198, 0.0008204626, -0.0013113890, 0.0000185219, 0.1298369914, 0.0137039134, -0.0732264817, 0.2615910470, -0.3168686032, -0.2668421268, 0.0008265595, 0.3348037899, -0.2143008113, -0.0194750577, 0.0021483751, -0.2271334827, -0.0051853741, 0.0148344319, -0.3073247671, 0.0805274695, -0.0831449702, -0.5156981349, 0.2167274207, 0.1440152079, -0.0024024099, 0.0773785859, -0.2815748155, 0.0000817322, -0.3793999255, -0.0273468848, -0.0008770833, -0.0207618065, 0.2017828375, 0.0930838510, -0.0000131412, 0.1548057497, 0.2162205577, 0.0011514216, 0.0022584351, -0.1239100918, 0.2202772945, 0.0008068140};
#endif

#endif
